digraph Tree {
node [shape=box, style="rounded", color="black", fontname="helvetica"] ;
edge [fontname="helvetica"] ;
0 [label="X[8366] <= 0.0\nsquared_error = 0.1\nsamples = 28464\nvalue = 0.1"] ;
1 [label="X[8607] <= 0.0\nsquared_error = 0.1\nsamples = 26676\nvalue = 0.1"] ;
0 -> 1 [labeldistance=2.5, labelangle=45, headlabel="True"] ;
2 [label="X[38422] <= 0.0\nsquared_error = 0.0\nsamples = 26343\nvalue = 0.0"] ;
1 -> 2 ;
3 [label="X[38425] <= 0.0\nsquared_error = 0.0\nsamples = 26020\nvalue = 0.0"] ;
2 -> 3 ;
4 [label="X[8517] <= 0.0\nsquared_error = 0.0\nsamples = 25906\nvalue = 0.0"] ;
3 -> 4 ;
5 [label="squared_error = 0.0\nsamples = 25466\nvalue = 0.0"] ;
4 -> 5 ;
6 [label="squared_error = 0.2\nsamples = 440\nvalue = 0.5"] ;
4 -> 6 ;
7 [label="squared_error = 0.0\nsamples = 114\nvalue = 1.0"] ;
3 -> 7 ;
8 [label="X[38422] <= 0.1\nsquared_error = 0.2\nsamples = 323\nvalue = 0.7"] ;
2 -> 8 ;
9 [label="X[13236] <= 0.1\nsquared_error = 0.1\nsamples = 176\nvalue = 0.9"] ;
8 -> 9 ;
10 [label="squared_error = 0.0\nsamples = 174\nvalue = 1.0"] ;
9 -> 10 ;
11 [label="squared_error = 0.0\nsamples = 2\nvalue = 0.0"] ;
9 -> 11 ;
12 [label="X[38425] <= 0.0\nsquared_error = 0.2\nsamples = 147\nvalue = 0.5"] ;
8 -> 12 ;
13 [label="squared_error = 0.2\nsamples = 121\nvalue = 0.5"] ;
12 -> 13 ;
14 [label="squared_error = 0.0\nsamples = 26\nvalue = 1.0"] ;
12 -> 14 ;
15 [label="X[8607] <= 0.3\nsquared_error = 0.1\nsamples = 333\nvalue = 0.9"] ;
1 -> 15 ;
16 [label="X[16344] <= 0.5\nsquared_error = 0.0\nsamples = 317\nvalue = 1.0"] ;
15 -> 16 ;
17 [label="X[11065] <= 0.3\nsquared_error = 0.0\nsamples = 316\nvalue = 1.0"] ;
16 -> 17 ;
18 [label="squared_error = 0.0\nsamples = 315\nvalue = 1.0"] ;
17 -> 18 ;
19 [label="squared_error = 0.0\nsamples = 1\nvalue = 0.0"] ;
17 -> 19 ;
20 [label="squared_error = 0.0\nsamples = 1\nvalue = 0.0"] ;
16 -> 20 ;
21 [label="X[37403] <= 0.1\nsquared_error = 0.0\nsamples = 16\nvalue = 0.0"] ;
15 -> 21 ;
22 [label="squared_error = 0.0\nsamples = 15\nvalue = 0.0"] ;
21 -> 22 ;
23 [label="squared_error = 0.0\nsamples = 1\nvalue = 1.0"] ;
21 -> 23 ;
24 [label="X[0] <= 0.0\nsquared_error = 0.2\nsamples = 1788\nvalue = 0.7"] ;
0 -> 24 [labeldistance=2.5, labelangle=-45, headlabel="False"] ;
25 [label="X[8517] <= 0.0\nsquared_error = 0.2\nsamples = 1261\nvalue = 0.6"] ;
24 -> 25 ;
26 [label="X[8366] <= 0.1\nsquared_error = 0.2\nsamples = 956\nvalue = 0.5"] ;
25 -> 26 ;
27 [label="X[39032] <= 0.1\nsquared_error = 0.1\nsamples = 159\nvalue = 0.9"] ;
26 -> 27 ;
28 [label="squared_error = 0.1\nsamples = 158\nvalue = 0.9"] ;
27 -> 28 ;
29 [label="squared_error = 0.0\nsamples = 1\nvalue = 0.0"] ;
27 -> 29 ;
30 [label="X[51181] <= 0.0\nsquared_error = 0.2\nsamples = 797\nvalue = 0.5"] ;
26 -> 30 ;
31 [label="squared_error = 0.2\nsamples = 691\nvalue = 0.4"] ;
30 -> 31 ;
32 [label="squared_error = 0.1\nsamples = 106\nvalue = 0.9"] ;
30 -> 32 ;
33 [label="X[11915] <= 0.1\nsquared_error = 0.1\nsamples = 305\nvalue = 0.9"] ;
25 -> 33 ;
34 [label="X[46067] <= 0.2\nsquared_error = 0.1\nsamples = 301\nvalue = 0.9"] ;
33 -> 34 ;
35 [label="squared_error = 0.1\nsamples = 300\nvalue = 0.9"] ;
34 -> 35 ;
36 [label="squared_error = 0.0\nsamples = 1\nvalue = 0.0"] ;
34 -> 36 ;
37 [label="X[55110] <= 0.1\nsquared_error = 0.2\nsamples = 4\nvalue = 0.2"] ;
33 -> 37 ;
38 [label="squared_error = 0.0\nsamples = 3\nvalue = 0.0"] ;
37 -> 38 ;
39 [label="squared_error = 0.0\nsamples = 1\nvalue = 1.0"] ;
37 -> 39 ;
40 [label="squared_error = 0.0\nsamples = 527\nvalue = 1.0"] ;
24 -> 40 ;
}